<?xml version="1.0"?>
<opencv_storage>
<cascade>
  <stageType>BOOST</stageType>
  <featureType>HAAR</featureType>
  <height>24</height>
  <width>24</width>
  <stageParams>
    <boostType>GAB</boostType>
    <minHitRate>9.9500000476837158e-01</minHitRate>
    <maxFalseAlarm>5.0000000000000000e-01</maxFalseAlarm>
    <weightTrimRate>9.4999998807907104e-01</weightTrimRate>
    <maxDepth>1</maxDepth>
    <maxWeakCount>100</maxWeakCount></stageParams>
  <featureParams>
    <maxCatCount>0</maxCatCount>
    <featSize>1</featSize>
    <mode>BASIC</mode></featureParams>
  <stageNum>7</stageNum>
  <stages>
    <!-- stage 0 -->
    <_>
      <maxWeakCount>3</maxWeakCount>
      <stageThreshold>-1.6649817228317261e+00</stageThreshold>
      <weakClassifiers>
        <_>
          <internalNodes>
            0 -1 23 2.4432582780718803e-02</internalNodes>
          <leafValues>
            -9.9001997709274292e-01 6.0000002384185791e-01</leafValues></_>
        <_>
          <internalNodes>
            0 -1 10 -2.9388177394866943e-01</internalNodes>
          <leafValues>
            2.9143166542053223e-01 -9.7956317663192749e-01</leafValues></_>
        <_>
          <internalNodes>
            0 -1 21 2.4596326984465122e-03</internalNodes>
          <leafValues>
            -9.6639347076416016e-01 4.2074945569038391e-01</leafValues></_></weakClassifiers></_>
    <!-- stage 1 -->
    <_>
      <maxWeakCount>3</maxWeakCount>
      <stageThreshold>-1.8064168691635132e+00</stageThreshold>
      <weakClassifiers>
        <_>
          <internalNodes>
            0 -1 6 -4.0972210466861725e-02</internalNodes>
          <leafValues>
            6.6666668653488159e-01 -9.8606967926025391e-01</leafValues></_>
        <_>
          <internalNodes>
            0 -1 7 1.4407496154308319e-01</internalNodes>
          <leafValues>
            -9.7687894105911255e-01 1.2533649802207947e-01</leafValues></_>
        <_>
          <internalNodes>
            0 -1 4 -2.1551966667175293e-01</internalNodes>
          <leafValues>
            1.5653172135353088e-01 -9.7975617647171021e-01</leafValues></_></weakClassifiers></_>
    <!-- stage 2 -->
    <_>
      <maxWeakCount>3</maxWeakCount>
      <stageThreshold>-1.7174512147903442e+00</stageThreshold>
      <weakClassifiers>
        <_>
          <internalNodes>
            0 -1 3 -1.2106512673199177e-02</internalNodes>
          <leafValues>
            -8.3333335816860199e-02 -9.8791539669036865e-01</leafValues></_>
        <_>
          <internalNodes>
            0 -1 9 7.6829977333545685e-02</internalNodes>
          <leafValues>
            -9.7953730821609497e-01 2.5182202458381653e-01</leafValues></_>
        <_>
          <internalNodes>
            0 -1 12 -6.6677868366241455e-02</internalNodes>
          <leafValues>
            2.5000143051147461e-01 -1.</leafValues></_></weakClassifiers></_>
    <!-- stage 3 -->
    <_>
      <maxWeakCount>4</maxWeakCount>
      <stageThreshold>-2.4377048015594482e+00</stageThreshold>
      <weakClassifiers>
        <_>
          <internalNodes>
            0 -1 14 -2.4058893322944641e-02</internalNodes>
          <leafValues>
            6.6666668653488159e-01 -9.7626113891601563e-01</leafValues></_>
        <_>
          <internalNodes>
            0 -1 9 7.6562240719795227e-02</internalNodes>
          <leafValues>
            -9.8265367746353149e-01 3.1725609302520752e-01</leafValues></_>
        <_>
          <internalNodes>
            0 -1 18 2.2368010133504868e-02</internalNodes>
          <leafValues>
            -8.8093823194503784e-01 4.0200069546699524e-01</leafValues></_>
        <_>
          <internalNodes>
            0 -1 11 9.6718020737171173e-02</internalNodes>
          <leafValues>
            -1. 4.0214827656745911e-01</leafValues></_></weakClassifiers></_>
    <!-- stage 4 -->
    <_>
      <maxWeakCount>4</maxWeakCount>
      <stageThreshold>-2.1897461414337158e+00</stageThreshold>
      <weakClassifiers>
        <_>
          <internalNodes>
            0 -1 22 2.3863364011049271e-02</internalNodes>
          <leafValues>
            -9.8984771966934204e-01 -2.5000000000000000e-01</leafValues></_>
        <_>
          <internalNodes>
            0 -1 5 -1.5918912366032600e-02</internalNodes>
          <leafValues>
            4.3659798800945282e-02 -9.4959586858749390e-01</leafValues></_>
        <_>
          <internalNodes>
            0 -1 13 1.2198554351925850e-02</internalNodes>
          <leafValues>
            -8.7593173980712891e-01 3.4297233819961548e-01</leafValues></_>
        <_>
          <internalNodes>
            0 -1 1 -4.9008158966898918e-03</internalNodes>
          <leafValues>
            6.2562912702560425e-01 -7.9026615619659424e-01</leafValues></_></weakClassifiers></_>
    <!-- stage 5 -->
    <_>
      <maxWeakCount>4</maxWeakCount>
      <stageThreshold>-2.2505502700805664e+00</stageThreshold>
      <weakClassifiers>
        <_>
          <internalNodes>
            0 -1 16 -1.4644453302025795e-02</internalNodes>
          <leafValues>
            1. -9.7433364391326904e-01</leafValues></_>
        <_>
          <internalNodes>
            0 -1 17 5.0435185432434082e-02</internalNodes>
          <leafValues>
            -9.4396179914474487e-01 4.1686999797821045e-01</leafValues></_>
        <_>
          <internalNodes>
            0 -1 8 -5.6763451546430588e-02</internalNodes>
          <leafValues>
            6.6798806190490723e-01 -8.0419552326202393e-01</leafValues></_>
        <_>
          <internalNodes>
            0 -1 2 -7.4887392111122608e-04</internalNodes>
          <leafValues>
            4.7194081544876099e-01 -9.8425728082656860e-01</leafValues></_></weakClassifiers></_>
    <!-- stage 6 -->
    <_>
      <maxWeakCount>4</maxWeakCount>
      <stageThreshold>-2.2965342998504639e+00</stageThreshold>
      <weakClassifiers>
        <_>
          <internalNodes>
            0 -1 19 4.0859254077076912e-03</internalNodes>
          <leafValues>
            -9.7823935747146606e-01 1.</leafValues></_>
        <_>
          <internalNodes>
            0 -1 20 7.8816516324877739e-03</internalNodes>
          <leafValues>
            -9.5747822523117065e-01 4.2207410931587219e-01</leafValues></_>
        <_>
          <internalNodes>
            0 -1 0 -1.8081471323966980e-01</internalNodes>
          <leafValues>
            3.1873396039009094e-01 -8.6779898405075073e-01</leafValues></_>
        <_>
          <internalNodes>
            0 -1 15 8.9922528713941574e-03</internalNodes>
          <leafValues>
            -6.7955076694488525e-01 8.3855426311492920e-01</leafValues></_></weakClassifiers></_></stages>
  <features>
    <_>
      <rects>
        <_>
          0 0 5 24 -1.</_>
        <_>
          0 8 5 8 3.</_></rects>
      <tilted>0</tilted></_>
    <_>
      <rects>
        <_>
          0 3 2 10 -1.</_>
        <_>
          0 3 1 5 2.</_>
        <_>
          1 8 1 5 2.</_></rects>
      <tilted>0</tilted></_>
    <_>
      <rects>
        <_>
          0 5 4 1 -1.</_>
        <_>
          2 5 2 1 2.</_></rects>
      <tilted>0</tilted></_>
    <_>
      <rects>
        <_>
          0 10 2 6 -1.</_>
        <_>
          1 10 1 6 2.</_></rects>
      <tilted>0</tilted></_>
    <_>
      <rects>
        <_>
          0 10 24 14 -1.</_>
        <_>
          8 10 8 14 3.</_></rects>
      <tilted>0</tilted></_>
    <_>
      <rects>
        <_>
          0 13 2 10 -1.</_>
        <_>
          1 13 1 10 2.</_></rects>
      <tilted>0</tilted></_>
    <_>
      <rects>
        <_>
          0 14 4 7 -1.</_>
        <_>
          2 14 2 7 2.</_></rects>
      <tilted>0</tilted></_>
    <_>
      <rects>
        <_>
          0 15 22 8 -1.</_>
        <_>
          0 19 22 4 2.</_></rects>
      <tilted>0</tilted></_>
    <_>
      <rects>
        <_>
          1 3 20 4 -1.</_>
        <_>
          1 5 20 2 2.</_></rects>
      <tilted>0</tilted></_>
    <_>
      <rects>
        <_>
          1 16 18 6 -1.</_>
        <_>
          1 19 18 3 2.</_></rects>
      <tilted>0</tilted></_>
    <_>
      <rects>
        <_>
          2 0 18 12 -1.</_>
        <_>
          2 6 18 6 2.</_></rects>
      <tilted>0</tilted></_>
    <_>
      <rects>
        <_>
          3 14 18 10 -1.</_>
        <_>
          3 19 18 5 2.</_></rects>
      <tilted>0</tilted></_>
    <_>
      <rects>
        <_>
          5 6 17 9 -1.</_>
        <_>
          5 9 17 3 3.</_></rects>
      <tilted>0</tilted></_>
    <_>
      <rects>
        <_>
          8 13 12 10 -1.</_>
        <_>
          12 13 4 10 3.</_></rects>
      <tilted>0</tilted></_>
    <_>
      <rects>
        <_>
          8 13 9 2 -1.</_>
        <_>
          8 14 9 1 2.</_></rects>
      <tilted>0</tilted></_>
    <_>
      <rects>
        <_>
          12 3 4 3 -1.</_>
        <_>
          12 4 4 1 3.</_></rects>
      <tilted>0</tilted></_>
    <_>
      <rects>
        <_>
          13 12 8 2 -1.</_>
        <_>
          13 12 4 1 2.</_>
        <_>
          17 13 4 1 2.</_></rects>
      <tilted>0</tilted></_>
    <_>
      <rects>
        <_>
          20 13 4 5 -1.</_>
        <_>
          22 13 2 5 2.</_></rects>
      <tilted>0</tilted></_>
    <_>
      <rects>
        <_>
          20 16 4 4 -1.</_>
        <_>
          22 16 2 4 2.</_></rects>
      <tilted>0</tilted></_>
    <_>
      <rects>
        <_>
          22 7 2 1 -1.</_>
        <_>
          23 7 1 1 2.</_></rects>
      <tilted>0</tilted></_>
    <_>
      <rects>
        <_>
          22 8 2 10 -1.</_>
        <_>
          22 8 1 5 2.</_>
        <_>
          23 13 1 5 2.</_></rects>
      <tilted>0</tilted></_>
    <_>
      <rects>
        <_>
          22 10 2 2 -1.</_>
        <_>
          23 10 1 2 2.</_></rects>
      <tilted>0</tilted></_>
    <_>
      <rects>
        <_>
          22 11 2 7 -1.</_>
        <_>
          23 11 1 7 2.</_></rects>
      <tilted>0</tilted></_>
    <_>
      <rects>
        <_>
          22 12 2 7 -1.</_>
        <_>
          23 12 1 7 2.</_></rects>
      <tilted>0</tilted></_></features></cascade>
</opencv_storage>
