<?xml version="1.0"?>
<opencv_storage>
<cascade>
  <stageType>BOOST</stageType>
  <featureType>HAAR</featureType>
  <height>32</height>
  <width>24</width>
  <stageParams>
    <boostType>GAB</boostType>
    <minHitRate>9.9500000476837158e-01</minHitRate>
    <maxFalseAlarm>5.0000000000000000e-01</maxFalseAlarm>
    <weightTrimRate>9.4999998807907104e-01</weightTrimRate>
    <maxDepth>1</maxDepth>
    <maxWeakCount>100</maxWeakCount></stageParams>
  <featureParams>
    <maxCatCount>0</maxCatCount>
    <featSize>1</featSize>
    <mode>BASIC</mode></featureParams>
  <stageNum>13</stageNum>
  <stages>
    <!-- stage 0 -->
    <_>
      <maxWeakCount>3</maxWeakCount>
      <stageThreshold>-8.5061240196228027e-01</stageThreshold>
      <weakClassifiers>
        <_>
          <internalNodes>
            0 -1 21 8.2259085029363632e-03</internalNodes>
          <leafValues>
            -9.2270529270172119e-01 9.4736844301223755e-01</leafValues></_>
        <_>
          <internalNodes>
            0 -1 16 -9.6063911914825439e-02</internalNodes>
          <leafValues>
            8.8205403089523315e-01 -7.9575747251510620e-01</leafValues></_>
        <_>
          <internalNodes>
            0 -1 19 -5.0200121477246284e-03</internalNodes>
          <leafValues>
            8.6785036325454712e-01 -7.8332698345184326e-01</leafValues></_></weakClassifiers></_>
    <!-- stage 1 -->
    <_>
      <maxWeakCount>2</maxWeakCount>
      <stageThreshold>-2.6917088031768799e-01</stageThreshold>
      <weakClassifiers>
        <_>
          <internalNodes>
            0 -1 15 1.5826899558305740e-02</internalNodes>
          <leafValues>
            -8.8625591993331909e-01 9.4117647409439087e-01</leafValues></_>
        <_>
          <internalNodes>
            0 -1 23 -1.2388975359499454e-02</internalNodes>
          <leafValues>
            6.1708503961563110e-01 -9.4936847686767578e-01</leafValues></_></weakClassifiers></_>
    <!-- stage 2 -->
    <_>
      <maxWeakCount>3</maxWeakCount>
      <stageThreshold>-1.2166578769683838e+00</stageThreshold>
      <weakClassifiers>
        <_>
          <internalNodes>
            0 -1 17 -1.0605871677398682e-02</internalNodes>
          <leafValues>
            1. -8.6046510934829712e-01</leafValues></_>
        <_>
          <internalNodes>
            0 -1 6 -1.3508662581443787e-01</internalNodes>
          <leafValues>
            6.3450258970260620e-01 -8.3564442396163940e-01</leafValues></_>
        <_>
          <internalNodes>
            0 -1 26 1.7987677128985524e-03</internalNodes>
          <leafValues>
            -1. 4.7945162653923035e-01</leafValues></_></weakClassifiers></_>
    <!-- stage 3 -->
    <_>
      <maxWeakCount>3</maxWeakCount>
      <stageThreshold>-1.2976323366165161e+00</stageThreshold>
      <weakClassifiers>
        <_>
          <internalNodes>
            0 -1 30 -3.6595866549760103e-03</internalNodes>
          <leafValues>
            1. -8.6046510934829712e-01</leafValues></_>
        <_>
          <internalNodes>
            0 -1 27 2.2863466292619705e-03</internalNodes>
          <leafValues>
            -8.0699479579925537e-01 3.6843460798263550e-01</leafValues></_>
        <_>
          <internalNodes>
            0 -1 31 1.1081998309236951e-05</internalNodes>
          <leafValues>
            -8.0560177564620972e-01 4.7579932212829590e-01</leafValues></_></weakClassifiers></_>
    <!-- stage 4 -->
    <_>
      <maxWeakCount>3</maxWeakCount>
      <stageThreshold>-1.3518600463867188e+00</stageThreshold>
      <weakClassifiers>
        <_>
          <internalNodes>
            0 -1 2 1.5976209193468094e-02</internalNodes>
          <leafValues>
            -8.7559807300567627e-01 7.7777779102325439e-01</leafValues></_>
        <_>
          <internalNodes>
            0 -1 1 -1.9393408298492432e-01</internalNodes>
          <leafValues>
            5.3017443418502808e-01 -8.1726497411727905e-01</leafValues></_>
        <_>
          <internalNodes>
            0 -1 12 5.5798032553866506e-04</internalNodes>
          <leafValues>
            -9.8463261127471924e-01 3.4100303053855896e-01</leafValues></_></weakClassifiers></_>
    <!-- stage 5 -->
    <_>
      <maxWeakCount>3</maxWeakCount>
      <stageThreshold>-1.0678921937942505e+00</stageThreshold>
      <weakClassifiers>
        <_>
          <internalNodes>
            0 -1 18 -8.4708053618669510e-03</internalNodes>
          <leafValues>
            7.2972971200942993e-01 -8.7500000000000000e-01</leafValues></_>
        <_>
          <internalNodes>
            0 -1 22 2.0881018042564392e-01</internalNodes>
          <leafValues>
            -7.0761716365814209e-01 7.4726486206054688e-01</leafValues></_>
        <_>
          <internalNodes>
            0 -1 24 4.1712581878527999e-04</internalNodes>
          <leafValues>
            -9.0380603075027466e-01 5.1472491025924683e-01</leafValues></_></weakClassifiers></_>
    <!-- stage 6 -->
    <_>
      <maxWeakCount>2</maxWeakCount>
      <stageThreshold>-6.8781036138534546e-01</stageThreshold>
      <weakClassifiers>
        <_>
          <internalNodes>
            0 -1 7 -1.5979630872607231e-02</internalNodes>
          <leafValues>
            6.8421053886413574e-01 -8.7439614534378052e-01</leafValues></_>
        <_>
          <internalNodes>
            0 -1 25 1.4542709686793387e-04</internalNodes>
          <leafValues>
            -1. 1.8658575415611267e-01</leafValues></_></weakClassifiers></_>
    <!-- stage 7 -->
    <_>
      <maxWeakCount>3</maxWeakCount>
      <stageThreshold>-8.0156868696212769e-01</stageThreshold>
      <weakClassifiers>
        <_>
          <internalNodes>
            0 -1 32 -6.3553685322403908e-03</internalNodes>
          <leafValues>
            6.7567569017410278e-01 -8.6538463830947876e-01</leafValues></_>
        <_>
          <internalNodes>
            0 -1 11 -9.4481900334358215e-02</internalNodes>
          <leafValues>
            7.8872174024581909e-01 -6.2878656387329102e-01</leafValues></_>
        <_>
          <internalNodes>
            0 -1 14 -6.0270694084465504e-03</internalNodes>
          <leafValues>
            6.9260251522064209e-01 -6.7032128572463989e-01</leafValues></_></weakClassifiers></_>
    <!-- stage 8 -->
    <_>
      <maxWeakCount>3</maxWeakCount>
      <stageThreshold>-1.4427250623703003e+00</stageThreshold>
      <weakClassifiers>
        <_>
          <internalNodes>
            0 -1 4 -1.4324624789878726e-03</internalNodes>
          <leafValues>
            6.7567569017410278e-01 -8.6538463830947876e-01</leafValues></_>
        <_>
          <internalNodes>
            0 -1 0 3.6163241020403802e-05</internalNodes>
          <leafValues>
            -9.1735881567001343e-01 2.7020767331123352e-01</leafValues></_>
        <_>
          <internalNodes>
            0 -1 29 9.5462176250293851e-04</internalNodes>
          <leafValues>
            3.4001839160919189e-01 -9.6278554201126099e-01</leafValues></_></weakClassifiers></_>
    <!-- stage 9 -->
    <_>
      <maxWeakCount>2</maxWeakCount>
      <stageThreshold>-4.6833890676498413e-01</stageThreshold>
      <weakClassifiers>
        <_>
          <internalNodes>
            0 -1 5 5.8321850374341011e-03</internalNodes>
          <leafValues>
            -8.1651377677917480e-01 8.5185188055038452e-01</leafValues></_>
        <_>
          <internalNodes>
            0 -1 28 8.9064217172563076e-04</internalNodes>
          <leafValues>
            -9.4958215951919556e-01 3.4817487001419067e-01</leafValues></_></weakClassifiers></_>
    <!-- stage 10 -->
    <_>
      <maxWeakCount>2</maxWeakCount>
      <stageThreshold>-6.1490869522094727e-01</stageThreshold>
      <weakClassifiers>
        <_>
          <internalNodes>
            0 -1 13 -9.8657747730612755e-03</internalNodes>
          <leafValues>
            6.4999997615814209e-01 -8.8292682170867920e-01</leafValues></_>
        <_>
          <internalNodes>
            0 -1 8 -1.0723799932748079e-03</internalNodes>
          <leafValues>
            2.6801812648773193e-01 -9.4018983840942383e-01</leafValues></_></weakClassifiers></_>
    <!-- stage 11 -->
    <_>
      <maxWeakCount>2</maxWeakCount>
      <stageThreshold>-6.3847398757934570e-01</stageThreshold>
      <weakClassifiers>
        <_>
          <internalNodes>
            0 -1 30 -3.6367699503898621e-03</internalNodes>
          <leafValues>
            6.6666668653488159e-01 -8.5645931959152222e-01</leafValues></_>
        <_>
          <internalNodes>
            0 -1 9 2.0774989025085233e-05</internalNodes>
          <leafValues>
            -9.3668866157531738e-01 2.1798534691333771e-01</leafValues></_></weakClassifiers></_>
    <!-- stage 12 -->
    <_>
      <maxWeakCount>3</maxWeakCount>
      <stageThreshold>-1.1928981542587280e+00</stageThreshold>
      <weakClassifiers>
        <_>
          <internalNodes>
            0 -1 3 5.2204476669430733e-03</internalNodes>
          <leafValues>
            -8.4688997268676758e-01 6.1111110448837280e-01</leafValues></_>
        <_>
          <internalNodes>
            0 -1 10 3.6852608900517225e-04</internalNodes>
          <leafValues>
            4.0338239073753357e-01 -9.3895322084426880e-01</leafValues></_>
        <_>
          <internalNodes>
            0 -1 20 -1.0377641767263412e-01</internalNodes>
          <leafValues>
            6.5861928462982178e-01 -7.4939060211181641e-01</leafValues></_></weakClassifiers></_></stages>
  <features>
    <_>
      <rects>
        <_>
          0 0 4 1 -1.</_>
        <_>
          2 0 2 1 2.</_></rects>
      <tilted>0</tilted></_>
    <_>
      <rects>
        <_>
          0 4 24 12 -1.</_>
        <_>
          8 4 8 12 3.</_></rects>
      <tilted>0</tilted></_>
    <_>
      <rects>
        <_>
          0 23 6 4 -1.</_>
        <_>
          2 23 2 4 3.</_></rects>
      <tilted>0</tilted></_>
    <_>
      <rects>
        <_>
          0 24 1 6 -1.</_>
        <_>
          0 26 1 2 3.</_></rects>
      <tilted>0</tilted></_>
    <_>
      <rects>
        <_>
          0 27 2 1 -1.</_>
        <_>
          1 27 1 1 2.</_></rects>
      <tilted>0</tilted></_>
    <_>
      <rects>
        <_>
          0 27 2 4 -1.</_>
        <_>
          0 27 1 2 2.</_>
        <_>
          1 29 1 2 2.</_></rects>
      <tilted>0</tilted></_>
    <_>
      <rects>
        <_>
          1 3 21 11 -1.</_>
        <_>
          8 3 7 11 3.</_></rects>
      <tilted>0</tilted></_>
    <_>
      <rects>
        <_>
          1 16 23 2 -1.</_>
        <_>
          1 17 23 1 2.</_></rects>
      <tilted>0</tilted></_>
    <_>
      <rects>
        <_>
          1 22 4 8 -1.</_>
        <_>
          1 22 2 4 2.</_>
        <_>
          3 26 2 4 2.</_></rects>
      <tilted>0</tilted></_>
    <_>
      <rects>
        <_>
          2 0 2 3 -1.</_>
        <_>
          3 0 1 3 2.</_></rects>
      <tilted>0</tilted></_>
    <_>
      <rects>
        <_>
          2 0 2 4 -1.</_>
        <_>
          3 0 1 4 2.</_></rects>
      <tilted>0</tilted></_>
    <_>
      <rects>
        <_>
          2 7 15 10 -1.</_>
        <_>
          7 7 5 10 3.</_></rects>
      <tilted>0</tilted></_>
    <_>
      <rects>
        <_>
          2 13 6 4 -1.</_>
        <_>
          2 15 6 2 2.</_></rects>
      <tilted>0</tilted></_>
    <_>
      <rects>
        <_>
          2 21 4 3 -1.</_>
        <_>
          4 21 2 3 2.</_></rects>
      <tilted>0</tilted></_>
    <_>
      <rects>
        <_>
          3 1 1 20 -1.</_>
        <_>
          3 11 1 10 2.</_></rects>
      <tilted>0</tilted></_>
    <_>
      <rects>
        <_>
          3 15 21 3 -1.</_>
        <_>
          3 16 21 1 3.</_></rects>
      <tilted>0</tilted></_>
    <_>
      <rects>
        <_>
          3 16 18 6 -1.</_>
        <_>
          9 16 6 6 3.</_></rects>
      <tilted>0</tilted></_>
    <_>
      <rects>
        <_>
          4 16 2 10 -1.</_>
        <_>
          5 16 1 10 2.</_></rects>
      <tilted>0</tilted></_>
    <_>
      <rects>
        <_>
          4 21 3 8 -1.</_>
        <_>
          5 21 1 8 3.</_></rects>
      <tilted>0</tilted></_>
    <_>
      <rects>
        <_>
          4 21 4 3 -1.</_>
        <_>
          6 21 2 3 2.</_></rects>
      <tilted>0</tilted></_>
    <_>
      <rects>
        <_>
          5 5 12 23 -1.</_>
        <_>
          9 5 4 23 3.</_></rects>
      <tilted>0</tilted></_>
    <_>
      <rects>
        <_>
          6 17 18 3 -1.</_>
        <_>
          6 18 18 1 3.</_></rects>
      <tilted>0</tilted></_>
    <_>
      <rects>
        <_>
          8 5 16 12 -1.</_>
        <_>
          16 5 8 12 2.</_></rects>
      <tilted>0</tilted></_>
    <_>
      <rects>
        <_>
          14 0 1 30 -1.</_>
        <_>
          14 10 1 10 3.</_></rects>
      <tilted>0</tilted></_>
    <_>
      <rects>
        <_>
          16 12 8 3 -1.</_>
        <_>
          16 13 8 1 3.</_></rects>
      <tilted>0</tilted></_>
    <_>
      <rects>
        <_>
          21 15 3 2 -1.</_>
        <_>
          21 16 3 1 2.</_></rects>
      <tilted>0</tilted></_>
    <_>
      <rects>
        <_>
          21 16 1 16 -1.</_>
        <_>
          21 24 1 8 2.</_></rects>
      <tilted>0</tilted></_>
    <_>
      <rects>
        <_>
          22 2 2 27 -1.</_>
        <_>
          22 11 2 9 3.</_></rects>
      <tilted>0</tilted></_>
    <_>
      <rects>
        <_>
          22 6 2 4 -1.</_>
        <_>
          22 8 2 2 2.</_></rects>
      <tilted>0</tilted></_>
    <_>
      <rects>
        <_>
          22 14 2 4 -1.</_>
        <_>
          22 16 2 2 2.</_></rects>
      <tilted>0</tilted></_>
    <_>
      <rects>
        <_>
          22 19 2 2 -1.</_>
        <_>
          22 20 2 1 2.</_></rects>
      <tilted>0</tilted></_>
    <_>
      <rects>
        <_>
          22 24 2 2 -1.</_>
        <_>
          22 24 1 1 2.</_>
        <_>
          23 25 1 1 2.</_></rects>
      <tilted>0</tilted></_>
    <_>
      <rects>
        <_>
          23 17 1 6 -1.</_>
        <_>
          23 20 1 3 2.</_></rects>
      <tilted>0</tilted></_></features></cascade>
</opencv_storage>
